{"DataSet": [{"layer": [{"weights": [], "bias": 0.7631902885579237}, {"weights": [], "bias": 0.34760415114947996}, {"weights": [], "bias": 0.2807128479975447}, {"weights": [], "bias": 0.6741307225764339}, {"weights": [], "bias": 0.7789077351317361}, {"weights": [], "bias": 0.734858654635868}, {"weights": [], "bias": 0.23334347345036044}, {"weights": [], "bias": 0.6476038809871321}, {"weights": [], "bias": 0.4706555989782806}, {"weights": [], "bias": 0.19850030383210682}, {"weights": [], "bias": 0.7719545373721076}, {"weights": [], "bias": 0.4150133570188316}, {"weights": [], "bias": 0.2974696455224207}, {"weights": [], "bias": 0.38976083499612957}, {"weights": [], "bias": 0.8617532927520092}, {"weights": [], "bias": 0.9628480275132147}, {"weights": [], "bias": 0.875358588667239}, {"weights": [], "bias": 0.3474005602951006}, {"weights": [], "bias": 0.2789931505453983}, {"weights": [], "bias": 0.25441375601610894}, {"weights": [], "bias": 0.8706947377020632}, {"weights": [], "bias": 0.6813041387302989}, {"weights": [], "bias": 0.2705438362578152}, {"weights": [], "bias": 0.4323294474061693}, {"weights": [], "bias": 0.9940187586660845}, {"weights": [], "bias": 0.42946584546631117}, {"weights": [], "bias": 0.15533028856288011}, {"weights": [], "bias": 0.28219046724884944}, {"weights": [], "bias": 0.7159665976913598}, {"weights": [], "bias": 0.7937089375187734}, {"weights": [], "bias": 0.5851418341674177}, {"weights": [], "bias": 0.4429027047138714}]}, {"layer": [{"weights": [-0.8397520985762761, -0.1086677392789355, -0.18218734632079833, 0.7754308588022901, 0.7115187090782311, -0.15411660828530496, 0.12341878264573702, -0.08263149526003011, -0.521408184169272, 0.7561831457034408, -0.3955647808142284, 0.17024306902191674, 0.4403654539225786, -0.15531424498707538, 0.7926208421755754, -0.17864312149970427, 0.49739408505069244, 0.07954027581104609, -0.25122350813206507, 0.1919730361724493, -0.8521817902424809, 0.812619849033796, 0.2347881075771806, -0.8900410632682833, -0.4731950302564397, -0.33831177796703715, -0.06036740220256962, -0.10136655409379743, 0.9579253239928123, -0.08013857546867759, -0.0358279760558685, -0.32142404769816807], "bias": 0.01189668598504733}, {"weights": [0.7117484186210467, 0.24136931465877232, 0.28367073545847277, 0.4946277310809536, 0.6371546882811167, 0.8382910836098206, -0.684132665754645, -0.05548808287382096, 0.39605478796863136, -0.1752153577211292, -0.3014813079406466, 0.8261435652964103, 0.48574962048907405, -0.9743531767851245, -0.17654093564445147, 0.2523703964130998, -0.2751634790558257, 0.07439786337550214, 0.39999664075279306, 0.2720639759079257, -0.04128864486131794, 0.22902084646941726, 0.2734985984158884, -0.5670391023904203, -0.647487949735469, -0.3710850558428834, 0.31083024606645115, -0.30539598060402373, 0.9150244054407816, 0.9832099746039056, -0.38927604968407636, 0.597919792170563], "bias": 0.3701468106668557}, {"weights": [-0.062132290777451, 0.24306755398610777, -0.8737228992960921, -0.7429856825362684, 0.6976646989536747, 0.3502822225656593, -0.32072592726396776, 0.039682039363972285, -0.17108184624233894, 0.7636115504428778, 0.9375470217286102, 0.7717827770833964, -0.8318987842117719, -0.6557101513208069, 0.0842396782967617, 0.40717482828032286, 0.5038247000602161, -0.3362773865998113, -0.6067933996598591, -0.8438867885885412, 0.07773399342421458, -0.0021520426365643865, -0.18084482406439703, 0.49088375751834684, 0.508929290756893, 0.5360716817356675, 0.46757013468055725, -0.16573282175055482, 0.9226508343833216, -0.020882007596443767, 0.2842713939401666, -0.7784949241659568], "bias": 0.4840716143811988}, {"weights": [-0.45942246728639463, -0.7798918281035784, 0.5806948062010657, -0.6144292830837432, 0.18209989765204276, -0.7157333105788087, 0.06586641725759527, -0.435204151855919, -0.29925360912153354, -0.5079909819841596, 0.49651388581634376, 0.687085979334624, -0.557448856187287, -0.9589986193076876, -0.15307324881295487, -0.3782255659684885, 0.08865067110185527, -0.670187657934633, -0.008515293725692194, 0.467506890195176, 0.209783061384046, -0.33130097473460346, 0.9180551193258785, 0.4462793290258282, 0.43743517310047914, -0.10623948675638768, 0.500840329749121, 0.764160663884818, 0.9092882059608677, -0.7764320982675422, -0.5397061830466808, 0.02049828493395277], "bias": 0.6477562436117387}, {"weights": [-0.8182898300979786, -0.2322261131742891, -0.6725196394884284, -0.7679593804517495, 0.798299671133885, -0.12799379343012296, 0.5558387310393134, 0.09770278124505095, -0.4599792835164678, -0.0005545518194055573, 0.8677883395774736, 0.006397480016191015, -0.6479221717457968, 0.162055987480749, -0.1752955398791843, -0.23465400252676663, 0.9924680471908794, -0.6802197824323737, -0.6527542834251336, -0.4685481887059349, -0.021503410974611545, 0.42662306253282845, -0.8774823368073459, -0.4845996161841807, -0.8008721098974656, 0.3666314590437773, -0.6273699326205076, -0.41486211828004127, -0.8168276340031697, -0.08010760616357482, 0.6952911684092787, 0.9298808181256035], "bias": 0.7219027042842592}, {"weights": [0.7383856060084371, 0.032466755289819495, 0.3254166041676935, 0.6596155802979751, -0.26450703489594657, -0.7122292769229355, -0.45627892793429375, -0.22714188956633952, 0.588710046859971, 0.8885693270080997, -0.5239750563753426, 0.6494999981286212, 0.614869633062376, -0.4415963904813778, -0.403631877972984, -0.0028648567484359988, 0.03908495192273801, -0.3977778410190433, -0.25597443977465995, 0.5144376423066311, 0.22773099559630405, 0.9501680671593424, -0.08122478857031135, 0.6262633211664027, 0.6026472823704215, 0.7949902038367732, 0.9847240917107338, -0.9696957894184588, -0.28846534185810563, 0.5627012228744296, -0.2111972805573313, 0.4810582788640811], "bias": 0.5393110967057064}, {"weights": [-0.3562263464076373, -0.5015815941209066, -0.8732214299309164, 0.35709149330157663, -0.3720365353394957, -0.7125248784869983, -0.18326327657362762, 0.3980672387443162, -0.3005608489503289, 0.2374301885651001, 0.9427048063775006, 0.7756806178762645, 0.14020600056915747, 0.17611342006352979, -0.6070817398313282, 0.6621743826776696, 0.7139474617870042, 0.854203104985233, 0.7793028175272345, 0.1062798056851393, 0.5594666645458197, 0.8887714260410927, -0.14129700408607546, 0.8856206414767074, 0.36318988207054026, -0.7131004148007863, -0.2844119728859908, -0.6383620583653855, 0.4974166258871824, 0.3798003048450572, -0.15964053093014263, 0.18875120841817555], "bias": 0.3187045230789031}, {"weights": [-0.5194279395892949, 0.7013148998865629, -0.0281398305919618, -0.7026301605798815, 0.364607869183243, 0.24395990188986094, 0.8260347281799153, -0.3391750233959459, 0.6326907832535622, 0.03918143938497443, -0.016914693392344856, -0.8937066978159507, 0.13013368625715344, -0.14962558524019998, 0.3614746967135133, 0.8793314459566975, 0.6317472391503282, -0.47677665043878004, -0.494943122881766, -0.5929263997310471, 0.9176724855335789, -0.7813959681613021, -0.7189414296377693, 0.10772827270779946, -0.3086097121715668, 0.9036691082561982, -0.5078877026335531, -0.44997510278832575, 0.44766085335816613, 0.26851746728733195, -0.47313954315826146, -0.9658629953696454], "bias": 0.10288087163755473}, {"weights": [0.33361151544687484, -0.7114433037288259, 0.5713967692597749, 0.12122271721452181, -0.5488144817764223, -0.8546480310292033, 0.9186241322886056, 0.8598039807681584, -0.7644113058378588, 0.6137250346151676, -0.42944359805009785, 0.49394061959609814, -0.24156720820172603, 0.22435184192013177, 0.5128737280060999, -0.8205218410554688, 0.17658201167454812, 0.2147359270315267, 0.5730635732648578, -0.3258376088832428, 0.006912267645809881, -0.10531855756303671, -0.4053003003127107, -0.9481915036565739, 0.15751037798253553, -0.08034342575951625, 0.49795975999538855, 0.3207378797939716, -0.6110633925195083, -0.07739605484017635, 0.4037198793815741, 0.35139523055790595], "bias": 0.9404164787259736}, {"weights": [0.7500887982736849, 0.4631451203661247, 0.42880982187273, -0.598420414521456, 0.594927342528412, 0.8318319493560008, 0.30896846040169357, -0.20620502066794752, 0.014873107923342652, 0.059405419156051575, -0.8639979328103551, 0.31051765719605023, 0.4766821378173064, 0.41917274994621506, -0.838959219969594, 0.6954039365689949, -0.5708779596634556, -0.8030970257379064, -0.4808940755850442, 0.5388813913024187, -0.29516600543319155, -0.9494922136327283, -0.36405697172515195, -0.8008890579006168, -0.44498734605010104, 0.7546824558860538, 0.5087830293769241, 0.9619692477958578, 0.7663336278950352, 0.2606969984823277, -0.877744014169463, 0.5093869334564196], "bias": 0.6050716064630939}, {"weights": [-0.4683702179191363, -0.6868543479622031, 0.5677937241934478, -0.12290214259701307, 0.6397017810854732, -0.3297225667366624, -0.19448563083721646, -0.3085770595335463, -0.016258712204223875, 0.04294934461150628, -0.7165544686227776, -0.9352418774147161, 0.03957830658321575, -0.42998613380678286, 0.8452686427023177, 0.4254916337776101, 0.8840791829612199, 0.5968224346800615, 0.5623857031061223, -0.27966249053441755, 0.6427404105590517, -0.067913045176417, -0.42521716726773967, -0.7297785781297788, 0.5796058316362404, 0.6136042479942054, 0.5820515417671593, -0.8698556088491849, 0.5866489600478783, -0.7117483909783618, -0.7976096242630557, -0.41820731824974783], "bias": 0.4034808997910706}, {"weights": [-0.20356946004653342, 0.8015406643945041, 0.12292673502979212, -0.8084252036660121, -0.9239041253122611, -0.4983256020327595, -0.2131787364042655, 0.8978063194950696, -0.33851511867244655, -0.622158397552578, -0.24004724565492436, 0.37664946006457917, -0.574128220636873, 0.6605430046182529, 0.33353883581393445, 0.5275414675064403, 0.6963324751741755, -0.9720110810235965, -0.882571850634065, 0.14643320407588495, -0.47161617543045503, 0.4362595222658352, 0.5209623421900239, -0.5822654731878768, -0.1549901451475773, -0.7902795674232619, -0.30337631184502334, 0.034545530575279794, 0.7014811480544922, -0.7436562750138006, -0.37106419026012916, -0.02852739401348907], "bias": 0.26042394165341215}, {"weights": [0.19557903980706123, -0.105105575472355, -0.3406192759186583, 0.08112080860724395, 0.08947047028616872, -0.8920898881591014, -0.1244924435760594, 0.3873509538928186, -0.6312478968354309, 0.9438314564667561, 0.09071610702576233, 0.6046896137897857, -0.1694893224069094, -0.9448269567230916, -0.8399193998779866, -0.8514528565154578, 0.11830947171047622, -0.8799610227289163, -0.9108619576264174, 0.25527468537910064, 0.6328024783787509, -0.07663413987540049, 0.5341009373498361, -0.9545223940359311, 0.2354031804527386, -0.9454330365157011, 0.09289956011576604, -0.01721623056778217, -0.4829753991304429, -0.9747973856731758, 0.8145711981437213, -0.34535308581999735], "bias": 0.6780126649805944}, {"weights": [0.6526764115703291, -0.7859143767099271, -0.14229816995401362, 0.1948136309112006, 0.47769292564272275, 0.0669834011569845, 0.16096007989989844, 0.8545620593966803, 0.22158873119090097, 0.712833465780725, 0.38030081017813633, -0.7466707662812151, 0.12531741278065914, 0.4763788363700285, 0.6802282885436, -0.4699826892354531, 0.16165673971023622, 0.07437118606069645, 0.13721078171062728, -0.788193866247641, 0.31548849810627605, -0.22280155290996695, 0.036177825342411984, -0.21039272246281537, 0.8872661422342426, 0.5257516756412698, -0.6052924864055014, -0.7622369005487717, 0.9232291775607948, -0.8358252068737262, 0.050621049067996485, -0.5147265742035491], "bias": 0.027017852161831033}, {"weights": [0.7160887314460795, -0.4374588815472009, -0.4217999723072171, 0.4565938369067147, -0.29167171738549647, -0.6385870855089283, -0.2480423779967354, -0.6189757872185692, 0.895228540286939, -0.5128652610851734, 0.9641654979076288, 0.6912080703913387, -0.08027682990729235, -0.5457101227750063, -0.19166382458157033, -0.5535665617463076, 0.4694325534832599, 0.5447927902565616, 0.22383349120756496, 0.7428086369857958, 0.46084634630849003, -0.004989229986592061, 0.7066829079454225, 0.8596264109688599, 0.6883101217563865, -0.4729472081173531, -0.6592821354884226, -0.20991728845739568, -0.7690284214469032, -0.3159248294274437, -0.2736758126031196, 0.5517563757373654], "bias": 0.3230580859086454}, {"weights": [0.20185542384967103, 0.7296099216169759, 0.9156523270115601, -0.7284674506009418, 0.052197065300761236, -0.6357529911380996, 0.09631552291466935, -0.10018527363620924, -0.4355013040710171, 0.15478657593465345, -0.6823360654756303, -0.11978844052583652, 0.5043868345344595, 0.02647931411360971, 0.8542505776168996, -0.5398387787434719, -0.9600569202519148, 0.6219111993380633, -0.5266877943846283, -0.9368281646926462, -0.2661902679310206, -0.30101213728782333, 0.9852866810975179, 0.17569630362216065, -0.9758322676645395, -0.7846992544471957, -0.5854760237787143, -0.264433834370189, 0.06996461578448196, 0.32304313564616244, 0.18391150173912532, -0.5983461251975789], "bias": 0.4592115756399802}]}, {"layer": [{"weights": [0.07973277938921426, 0.6821455582613587, -0.21431119533290935, 0.024389242871631897, 0.11765063595146379, -0.3294780666398677, 0.6414158500673903, 0.6541763677497145, 0.5452869907941068, -0.6675279883306557, -0.5713834767263266, -0.7215514235171316, -0.0013369079153033863, 0.14496514223420137, 0.5725589717700494, -0.19970470767764617], "bias": 0.09009133853538044}, {"weights": [0.7639447231328471, -0.31388723143281405, 0.511576465638052, 0.471752166841283, 0.23166416666755008, -0.17312055485235694, 0.3174832917727694, -0.8047459435657451, -1.0053914524765653, -0.9313053810333033, 0.9641079526027155, -0.8971938571300585, -0.7862896253403531, 0.09146655903517288, -0.20539303146585725, -0.1607314070681556], "bias": 0.6618836663839781}, {"weights": [-0.7093396230535731, -0.15863394059118963, 0.7731244812559064, 0.7635791574179991, -0.26047837016160624, 0.9611123080463321, -0.3482417354934008, 0.043141121371054574, -0.9992332782805683, -0.3905760862547123, -0.6618001290724114, 0.22974661909176727, -0.2860861629666268, 0.6372181859595177, 0.17165080316868825, -0.7126673472917737], "bias": 0.9021819156418375}, {"weights": [0.9707486809113812, 0.3676573112466869, 0.8556876916830427, -0.21167063796572144, 0.7745475210125052, -0.7171823847739189, 0.48588765832744896, 0.23015683065223436, -0.29710565144501766, -0.5661544395375147, 0.9510053322187855, 0.8773950021641891, -0.9761373163328979, -0.5990378782299239, 0.150683292255778, -0.9457309024125028], "bias": 0.3705072997178313}, {"weights": [0.0797469374851068, -0.8393754209537814, 0.19856293908689052, 0.7272439726325562, -0.02716423319805325, -0.19840067266553682, 0.713454261785293, -0.22802986108859988, 0.22251238978412916, 0.040993925593868524, 0.4187607812408166, 0.13844385825441008, 0.6309752379578594, 0.8928037989947553, -0.07486982741814494, -0.0918607770171173], "bias": 0.6686157585717754}, {"weights": [0.6111638045090068, 0.808906525078148, 0.6839425390571859, 0.19347753629179937, -0.29496423230470387, -0.6079145687557374, -0.11968443846631759, -0.3037703901240817, 0.5838232685162811, -0.5320336956219673, -0.4646292367493453, 0.5258572927522545, 0.2696656248225183, -0.35262258567542004, 0.35786386635786244, -0.565095832154579], "bias": 0.772175744874628}, {"weights": [0.8149844951275478, 0.9041637925630304, -0.16235284008583833, 0.5711648228572613, -0.15538080167037518, 0.8158598545617228, 0.41363383201720244, -0.4419138545105265, -0.9661109139559689, -0.5289211227196964, -0.42258492359276234, -0.1927802859506031, 0.18437437612181812, -0.48274503313526435, 0.8831842053965464, -0.9793078848312183], "bias": 0.0305026119481515}, {"weights": [-0.20196260536145957, -0.7143333444695051, -0.5019891262535205, -0.5473169712800855, 0.5824746903071195, -0.1459684005522016, -0.32057525892423777, -0.3151990085808617, -0.45236013386364154, -0.30520762635133425, -0.064482682920967, 0.02272196177799628, 0.09107999303351215, 0.5914475042136608, 0.24198615184796368, -0.1619401442681761], "bias": 0.5154261275961669}, {"weights": [-0.39392844324795784, -0.5651180641134187, 0.28533996888529417, -0.9408993973767934, -0.20387023707054067, -0.5994849455909317, -0.8706030735175492, -0.958307231241922, -0.10099584703073335, -0.2874401927197765, 0.4243820915517113, -0.13710138318459955, 0.801846780275628, -0.9101964606720391, 0.6387128424891575, -0.2747674107422375], "bias": 0.6487234880180003}, {"weights": [-0.77897616861117, -0.14275826025318575, 0.14802308811070805, 0.20533842531736785, -0.48338509242644767, -0.2557945118391589, -0.33780987067645835, -0.06307792045982763, -0.13187700553265433, 0.3742809158532766, 0.07148675893386428, 0.80400568080807, 0.6651647972569344, 0.34803750761775065, -0.31310279493015847, 0.7727146850370706], "bias": 0.13465706936828925}, {"weights": [-0.20880590160839052, 0.09913981305289164, -0.16845037517536307, 0.585565265604884, 0.9244145985850867, -0.238874794861062, -0.5148043906530346, -0.5371063168329382, -0.20707697789570428, -0.754782900827854, 0.0014332305972702328, -0.04881563897590926, -0.5962894027788271, -0.600816963807744, 0.5736835183071757, -0.2748656241285623], "bias": 0.16161121189666774}, {"weights": [0.13130714962386705, -0.7649306858996735, -0.9716256292750405, 0.43643373007612274, 0.1849905472971644, 0.7209101256889014, 0.26714528466507426, 0.5018369143146603, -0.7807471673796289, -0.21762146620480516, -0.5695423040973298, 0.6719025749214953, -0.1513069113119299, 0.9022243298436546, 0.3650875843785669, 0.776023355163822], "bias": 0.1402282750246981}, {"weights": [-0.7777521818719012, 0.15496574741757202, -0.2678611280001477, 0.2191291709444522, -0.9937727783369527, 0.6769040891688614, 0.058264746946667036, 0.029112266118146858, -0.25455158347547796, 0.18969529705726515, 0.6811529909519753, 0.5705533027688078, -0.4163092265127669, 0.9476667409661846, 0.49980789186805197, 0.861039003950816], "bias": 0.23463812509745346}, {"weights": [0.23502924290726293, -0.29982612277516746, 0.23709349113641048, 0.6534405696053048, 0.010416623904563167, -0.17544100974205515, 0.21368031972996954, 0.03791288157506375, 0.9122602762438378, 0.06720807992971731, -0.8751318788555723, -0.20257491696587399, -0.7733705874699852, -0.5584974357409226, 0.10829889779909632, -0.22884267785155038], "bias": 0.7762934266511371}, {"weights": [-0.09904942490215723, -0.06541665988767502, -0.49084306192761257, -0.044753160931993385, -0.33156133486077666, -0.19023882002151984, -1.009183331908716, -0.9263398779305866, 0.6199437014257867, 0.04496115536544887, -0.8857816838148894, -0.8463924195420777, -0.9989714049080208, 0.05943244481281837, -0.7611917974140091, 0.9778263212693058], "bias": 0.7687437123665934}, {"weights": [0.3511234141720611, 0.4290710265897438, -0.20748585038325146, 0.7222324875389022, -0.5493337089062601, -0.31363540775422033, -0.1593753444926417, 0.3717673355176776, -0.7764831268573841, -0.2818671214067983, 0.3272965360442466, 0.7339845954316397, -0.698996081220606, -0.0965693150146926, -0.33553780356854834, -0.36357974204718674], "bias": 0.3394163891241739}, {"weights": [0.405039092744987, 0.6492476086795869, 0.6479644763098064, -0.32238983805368754, -0.15112367749226197, -0.8124909214476803, 0.31124891142129235, 0.5883235294015897, -0.954816879392353, -0.8225117927228516, -0.9636110686204558, 0.32681418358831293, -0.8801938769381633, 0.4237249234307688, -0.37757397454962727, 0.22661248156448505], "bias": -0.005374327634247407}, {"weights": [-0.7782417430954733, -0.8597473508190843, -0.835854667955724, -0.6501348840986708, 0.4360617806973826, -0.646638397285069, -0.6153932846623275, 0.8100960634976058, 0.9248434010153005, -0.4163504758115604, -0.5383140385349098, 0.8925189631429049, -0.41968330820653027, -0.6870292744759761, -0.27772580418736187, -0.8344081072129274], "bias": 0.901671220226327}, {"weights": [-0.993251505945947, -0.785654476723484, 0.8782297531093711, -0.771109338928185, -0.6297464065671052, 0.8518324096675266, 0.11187060012870764, 0.29633697375576895, -0.504342012401372, 0.4221105866472307, 0.7891750812005804, -0.12171871836926139, 0.7101828383174877, 0.6228452775770713, -0.4042866866020585, -0.4156162692581981], "bias": 0.008478984765466113}, {"weights": [-0.710344577330056, -0.6592834012544012, -0.5806096958888312, 0.6559538616275443, -0.8327364973035718, 0.8259052605753094, 0.29554044558387543, 0.8350575441699236, -0.5620560103383978, -0.18686121734834227, -0.21314341633132833, 0.08678078941815462, 0.8558590673294753, -0.10197044274723893, 0.9510131525449579, 0.7004596155673871], "bias": 0.7924390344608807}, {"weights": [-0.1171332523291152, -0.2026891341853205, -0.7928511771894471, -0.6933312298792204, 0.637458184119736, 0.048496294457969616, -0.31132471307999293, -0.7441527120509064, 0.14904989864147636, 0.21318751049874451, 0.624972870461403, 0.39922830583244445, -0.4936789733653949, 0.14160944758961894, -0.4232899780442895, -0.5298827763762322], "bias": 0.2429509908417949}, {"weights": [0.007858868294912261, 0.8358098753876388, 0.9485097275291071, 0.5121443521371568, -0.3074549120111805, 0.3047781945064543, -0.9539745296681287, 0.9148313379308192, -0.5775370257276287, 0.5949353364029851, -0.2015231847436115, -0.8729362877501905, 0.6231021314735197, -0.391488842210064, -0.6372900980289365, -0.5580670545050238], "bias": 0.4886086525966734}, {"weights": [-0.7300986584383122, -0.7399894632278428, 0.537581919698235, -0.9954533190919871, -0.6482493335756422, -0.5301092298091293, -0.08183190482554828, -0.932233733035537, 0.6641779937574072, -0.8463795988511646, 0.9492712270300185, -0.13152791579267717, 0.38368065756125724, 0.6908495261720983, 0.24756374531146494, -0.0926337226969036], "bias": 0.5018631086483242}, {"weights": [0.3230054319427681, 0.1511713478062519, -0.4694995216076031, 0.6283762645270153, -0.6826681216848602, 0.8992111618323042, -0.8694950398329577, -0.9441437282699525, 0.9225615372974859, -0.1073719488829259, 0.21650666347756317, 0.9336430071701709, 0.9772680544293814, -0.2826331066184973, -0.5241629609111141, 0.9834555393147902], "bias": 0.9021452857565141}, {"weights": [-0.465190453064869, 0.14386722957659628, 0.9070799759554024, -0.3141457354735913, 0.5016606724224817, -0.4008743467214442, -0.5458424456093024, 0.6454632140255824, 0.2369515660256467, -0.5715636197555327, 0.8508995567927637, -0.39770423917382236, 0.9759660522965694, -0.2552671840523335, 0.8732010842315818, 0.44626750395955517], "bias": 0.079651285652305}, {"weights": [-0.8824650713861097, -0.3503069407721981, 0.10921523859866095, 0.14223994877523333, -0.9517046309238892, -0.8069491943461862, 0.9068645752149955, 0.11707087300802635, 0.7230889013932746, 0.6392557472848247, 0.7427153340217093, 0.3507371951656124, 0.7692762875353955, -0.8139179027252108, 0.8539938641173899, 0.6707561489855827], "bias": 0.542155854864557}, {"weights": [-0.9169198863731919, 0.6623799023492049, 0.20685475088620564, -0.21838623857130154, -0.49213977046279633, 0.6236510765898025, -0.11171148129656225, 0.5945776396137399, 0.6199736009465965, 0.9588376992496253, -0.5500260789674839, -0.1269056932089322, -0.505099502510132, -0.15879273735305222, 0.8807432162538674, -0.8510207401439179], "bias": 0.7871475244959828}, {"weights": [0.8838079848145225, 0.7470465125888693, 0.2081147523943137, 0.665731802824652, -0.9175411172188926, 0.3649135457956703, 0.13789827086576306, -0.21598776786034754, -0.05096632988281798, -0.787468471203997, 0.5298050339642065, -0.012869489009034668, 0.027544497765495272, 0.7176375806969579, -0.817697842904288, -0.1222885373463586], "bias": 0.9713610040395041}, {"weights": [-0.8562728521223607, 0.6174960066956802, 0.2980313694654862, 0.6371448271773827, 0.08597708088987095, -0.7190645998377782, 0.4901588296077386, 0.4111207113673204, 0.795586025101781, 0.40040279644222976, -0.21393312495179817, -0.45572000666552603, 0.5116414379542753, 0.535283237440582, -0.9407700629454566, -0.7447210763542378], "bias": 0.07167016533293967}, {"weights": [-0.8327282768853936, -0.18882808144940746, -0.9482360744124373, 0.12852027140363742, 0.13143102686804062, 0.68374064306208, -0.3416165495317559, 0.06722033800777712, 0.07460549131927735, -0.5240827844744574, 0.35213693545352653, -0.6814644064967487, -0.29975538451564193, -0.6674673998674523, 0.3381971003704837, -0.4092576596021531], "bias": 0.0655246622272411}, {"weights": [-0.6076933335377753, 0.19967393293815353, -0.15765612538769605, -0.42322518363360073, -0.5240256806940438, -0.30549517823675126, -0.5065220356561713, -0.9397712877830219, 0.26900550504716236, -0.7393246477362614, -0.8190276219580663, 0.022472066039951756, 0.35949759595324926, 0.9649947088511105, 0.0033369123012075394, -0.0870000205132], "bias": 0.6935179332519926}, {"weights": [-0.6224966485790334, -0.2727214305952953, 0.9018943349208366, 0.7270703301406307, 0.36706391973000696, -0.7282018573458081, -0.49363739208885893, -0.7295355891475898, 0.9464596494066994, -0.7394879765353476, -0.7561060732401487, -0.47002275334588745, 0.39943934790089414, 0.9292744743304217, -0.19894476895890775, 0.5257659477271825], "bias": 0.2553466420224423}]}, {"layer": [{"weights": [-0.7453712621586613, -0.0014357395906730462, -0.011879082472384908, 0.1659409382593099, 0.03376944158764553, -0.7981768162716688, -0.5507610072095492, -0.9767561683477178, -0.8354394845051853, -0.8390572431670105, -0.11081495089761419, -0.1237709670303656, 0.5078997134024238, -0.4304970590545631, -0.03510029235000177, -0.7516755361285732, 0.6491987536817752, 0.5746347788149082, 0.5735355640438633, 0.33637035108202096, -0.2423907197681215, -0.7422317306864505, -0.26833823297190135, 0.3089795981575846, 0.051785891114489696, -0.9387069000225725, 0.20841098350327106, 0.48929676209488265, -0.4703258260743425, -0.24183520367315864, 0.7883803976970281, -0.1060093878344545], "bias": 0.16582427945146408}, {"weights": [0.44783336948959307, -0.14587508077005842, -0.6492837296143196, -0.4236653256589496, -0.9518701500134912, -0.4601076819716195, -0.9096157971516312, 0.019432443438011062, -0.03140627289576271, -0.924194837061019, -0.2388361539221963, -0.7083898912544035, -0.08943603104050715, -0.09977319284460814, 0.5013104386482662, 0.1929459000758042, -0.33651715237897634, 0.5020153359474339, 0.713276247636736, 0.5575235035145446, -0.8896328460991193, 0.3066371296646802, 0.7714700605072511, 0.6184161349567289, 0.10060182807487358, -0.08690225955300573, -0.43514727514203816, -1.0327626285238978, 0.7795297201330761, 0.06892923030256216, 0.6621110933725395, 0.10707038392862199], "bias": 0.3913708104386846}, {"weights": [-0.16500926854179837, -1.0302360605085343, -0.416403885316108, -1.0408046642367665, 0.11938854108224946, -0.23388701357916, -1.040157318659146, 0.5494670107895889, -0.9375767390575829, -0.759670285741056, 0.6220389070720688, 0.1783197156677815, 0.46107838784741684, 0.03549392107631589, 0.906270532642009, -0.28888232984778534, 0.3631371606973154, 0.37244401610701156, 0.3778512346908578, -0.5207748620245054, 0.15814605895737477, -0.9735552601249966, 0.035096457004076896, -0.32558764375344396, -1.0191130483124595, 0.35071122991744474, 0.34783008028744733, 0.48005529662544405, 0.389104346005653, -0.2334040345261081, -0.19887780524260532, 0.5517034122151123], "bias": 0.26566508651873}, {"weights": [0.05577180655745134, -0.3114571884140455, 0.48669164600933246, -0.38684267498500796, 0.7330411487202623, -0.10033750517776306, -0.5294399939677987, 0.8684400004092389, 0.19036469699553288, 0.6171239622419984, 0.7020722656714692, 0.4190573110540541, 0.8787801615633739, 0.07879716285937607, -0.47021504316548446, 0.13263486668057686, -0.23032491622146167, -0.7796329099077771, 0.37133218604983237, -0.9409258390332896, -0.15897337176601672, -0.022070620848782217, -0.7614931020521732, -0.6441931929158052, -0.9917448413324751, 0.028589739991922027, -0.5121294684882872, -0.9543816031196084, -0.7410619823483284, -0.7849079449766178, -0.7970866453865583, -0.9458411576744903], "bias": 0.5042952398043459}, {"weights": [-0.3274940331256773, 0.09041003971255288, -0.5866023649738276, -0.8968959250200299, 0.5287970222657393, -0.5042023247917004, -0.8283323041886419, 0.2559193131676815, -0.008299064123103047, 0.10681721372906604, 0.18963423195328105, -0.8378210151875533, -0.7539834147904731, -0.4786298502430443, 0.021979574493282205, 1.0296751548585577, -0.43129970843668936, 0.8025316207734634, -0.3056069637246006, 1.0399383699233824, -0.7365815218777297, -0.7497406017595895, 0.7718270582569844, 0.14200681114039657, -0.13198199905965038, 0.11312604902538381, 0.12577020317316384, -0.03019162386309774, 0.25770889669034514, 0.6936450864358051, -0.6944057269739431, -0.43437182191350676], "bias": 0.35578904998166555}, {"weights": [-0.14268864540794338, 0.7045980762157171, 0.315244491798206, 0.14111479071290098, -0.03980201378546206, 0.3584731094138023, -0.01692388525224567, -0.4713961434454171, -0.12074754067027044, -1.154304843759962, 0.29795053232899815, 0.6120384602997726, 0.29176283974092765, -0.21262414623103149, 0.2522633152204578, -0.6812312295894558, -0.4748551038680785, 0.4026512569021455, 0.48202623625945684, -1.3242921170524244, 0.36687321217734353, -1.2316337076467654, -0.41228655559426847, -1.0226011690620205, 0.4587254132809195, 0.5090018771660765, 0.2835988951024831, -0.5631777784452234, -0.2330392298953039, -0.80929560934501, -0.7623873996640137, 0.19183703247306388], "bias": -0.2937101501299025}, {"weights": [-0.9191255240086494, -0.15404934012587226, 0.3858491426142058, 0.7688198580596427, -0.013028545099742921, -0.30169196624379757, 0.5760593608748433, -0.3811692009841226, -0.6557504801916707, -0.6430835302541492, 0.844986338933393, 0.5531586391282803, -0.7457105876570796, -0.7711939229312885, 0.7133978797865083, -0.6394268066657454, -0.969248697984883, -0.5185246945099802, -1.127212237133979, -0.49867691447486945, -0.8453691009186425, -0.7902855375138425, 0.7684752035992126, 0.6377767656607921, 0.09285079631877022, 0.4219036986236265, -0.10908408682838705, -0.24388442069956406, -0.7664241148541111, -0.28143090263595044, 0.014871167526001983, -0.4421128770403494], "bias": 0.7517431721074808}, {"weights": [-0.06011340046296296, -0.468773572061636, -0.3942362517917563, -0.7232362355212372, 0.5109525638867731, -0.6746365420808438, 0.3597741233968062, -0.09422385051349792, -0.27949862116360574, -0.201092451775946, -0.20864798705817034, 0.46242758645659104, -1.2887816409566635, 0.259700953450732, 0.6860965779172914, -0.20366972398696978, -0.8631942871642679, 0.8491894265091808, 0.681734275195797, 0.45967223881814223, 0.4706191884135671, -0.8966969343346535, -0.02221201078569598, 0.5632165554471665, -0.5570277319605389, 0.10968571964183008, -0.7506765651996299, 0.11910979620455571, -0.37278053791471033, -0.35440531468675834, 0.3412230501223037, -0.09839350911133452], "bias": 0.4752707348632508}, {"weights": [0.6910808971636099, 0.6484718099414934, -0.2642357770679936, -0.33182923015105426, -0.9798155309687961, -0.3265803038396114, 0.561017779552818, -0.3485712980708002, 0.09855018571877713, 0.019666142787178032, -0.21238779680485073, -0.41874945713384215, -0.5997835376626285, 0.34515158458566875, -0.7266590057747347, -0.21761317564550559, -0.43951265889167457, 0.7490251102193181, 0.010366237009576347, -1.02864654577306, 0.027050915687135812, 0.22324166149097205, 0.779807047838035, -0.29347593189128074, -0.3339491938694038, -0.6422635914743994, 0.10706943715757491, -0.15854425136904637, -0.4574662850485942, -0.20941557094632948, -0.6815718324035558, 0.8415482897109943], "bias": 0.47332055143281826}, {"weights": [0.223874434460066, -1.0801223874165873, -1.0256788038332625, 0.4885953975800356, -0.016561205654904376, -0.9373096405693105, 0.7442196816541569, 0.7784202403438784, -0.992150696869903, 0.36411259227954945, 0.2633936362933928, 0.26640150090433273, 0.6057524756998355, 0.29951824749517125, 0.8918803370805322, -0.43730793160247267, -0.9367837009545086, 0.6099761972773753, -0.23102577308410427, -1.0063230834833963, 0.22276763406130046, 0.2890649947134749, -0.33526961162286634, -0.465061862299894, -0.7609002808202204, 0.6060340058907658, -0.830504008354941, -0.5051161326724737, 0.5153694746292671, -0.18680165347400268, 0.4426660218610219, -0.16327857093125397], "bias": -0.10344031475866945}]}]}